2.574903856573683e-06 -2.6297808978572518e-05 4.474967282414814e-05 -3.4627604315965723e-05 -2.316470864744768e-05 1.6742108139749385e-06 1.9962041031429654e-05 3.218404138176475e-05 4.0831093090141385e-05 4.7633320608550094e-05 5.3543202468071895e-05 5.9037768073862084e-05 
-2.6297808978572518e-05 0.04781864954305893 0.0051518998669009474 -0.005216491360176806 -0.0008956343720260074 0.00011555889817704411 4.242018899228782e-05 -0.0001843581104967802 -0.0003680145752811734 -0.0004976067630033385 -0.0005925203870893125 -0.0006688671542245413 
4.474967282414814e-05 0.0051518998669009474 0.06799997730769071 0.014481320849980672 -0.0018011970461780517 -0.0030730410697460396 -0.0017867006546200487 -0.0006123020724191788 0.00013171824535729244 0.0005655465455466047 0.0008246793244717816 0.0009951049346830884 
-3.4627604315965723e-05 -0.005216491360176806 0.014481320849980672 0.013349230901412967 0.006065214605452658 0.002324488368643521 0.0006749241558425304 -5.301397394291636e-05 -0.00039376988905692365 -0.0005741164885144373 -0.0006884513802555035 -0.0007757303348892177 
-2.316470864744768e-05 -0.0008956343720260074 -0.0018011970461780517 0.006065214605452658 0.004425243311176831 0.002240769500261934 0.0009166061727344058 0.000218091877449941 -0.00013994908290668304 -0.0003299489889947987 -0.0004410756776413028 -0.0005163025429801697 
1.6742108139749385e-06 0.00011555889817704411 -0.0030730410697460396 0.002324488368643521 0.002240769500261934 0.0013174137965407775 0.0006830703381143862 0.0003403162147028394 0.00017201835618934345 9.415669057014712e-05 6.00935228512506e-05 4.641650280998695e-05 
1.9962041031429654e-05 4.242018899228782e-05 -0.0017867006546200487 0.0006749241558425304 0.0009166061727344058 0.0006830703381143862 0.0005039790370479055 0.0004184241204830568 0.00039420811207691037 0.00040314900321196563 0.00042856068494839713 0.00046177667843465454 
3.218404138176475e-05 -0.0001843581104967802 -0.0006123020724191788 -5.301397394291636e-05 0.000218091877449941 0.0003403162147028394 0.0004184241204830568 0.00048480719322876873 0.0005486294301847066 0.0006122298338777619 0.0006760545986682863 0.0007400943690992734 
4.0831093090141385e-05 -0.0003680145752811734 0.00013171824535729244 -0.00039376988905692365 -0.00013994908290668304 0.00017201835618934345 0.00039420811207691037 0.0005486294301847066 0.0006654363281902523 0.0007634326530012734 0.0008525153962343458 0.0009375126050767896 
4.7633320608550094e-05 -0.0004976067630033385 0.0005655465455466047 -0.0005741164885144373 -0.0003299489889947987 9.415669057014712e-05 0.00040314900321196563 0.0006122298338777619 0.0007634326530012734 0.0008850284906849004 0.0009923843668572447 0.0010931404954425033 
5.3543202468071895e-05 -0.0005925203870893125 0.0008246793244717816 -0.0006884513802555035 -0.0004410756776413028 6.00935228512506e-05 0.00042856068494839713 0.0006760545986682863 0.0008525153962343458 0.0009923843668572447 0.0011145728366714256 0.001228538764364056 
5.9037768073862084e-05 -0.0006688671542245413 0.0009951049346830884 -0.0007757303348892177 -0.0005163025429801697 4.641650280998695e-05 0.00046177667843465454 0.0007400943690992734 0.0009375126050767896 0.0010931404954425033 0.001228538764364056 0.0013545158341713944 
