1.7441988257266665e-05 -0.00041506924184081637 -2.9481379145230935e-05 -0.00021113034099418126 -9.96518367557237e-05 4.9156063948490365e-05 0.0001559788687589057 0.00022878393855588585 0.00028221611241655914 0.0003258320004957686 0.00036475944537714617 0.00040152624276102426 
-0.00041506924184081637 0.4197159673131611 0.062511921292567 -0.005702148507171846 0.01847476042673479 0.01388118178287471 0.005295131946872643 -0.0008961975056436091 -0.004697357786015875 -0.0070326228626093265 -0.0085976303721187 -0.009787354059664593 
-2.9481379145230935e-05 0.062511921292567 0.2891521366065556 0.08485540380651771 0.011091743951462504 -0.0035051011513499886 -0.004361971060742259 -0.0030189095672431662 -0.0019046365715353496 -0.0012734071232593203 -0.000976610403845923 -0.0008651126553427123 
-0.00021113034099418126 -0.005702148507171846 0.08485540380651771 0.07308373300236828 0.03393033429812341 0.013342491236400923 0.0039349163397506635 -0.0003712152341472044 -0.00245674457377976 -0.0035897165109044227 -0.004317326327114594 -0.004873403192328928 
-9.96518367557237e-05 0.01847476042673479 0.011091743951462504 0.03393033429812341 0.023119756844266898 0.011637103997922782 0.004856129786132273 0.0013215300792606204 -0.0004685084828929025 -0.0014022047869923612 -0.0019353439210595283 -0.0022867112322912677 
4.9156063948490365e-05 0.01388118178287471 -0.0035051011513499886 0.013342491236400923 0.011637103997922782 0.006943858807808385 0.003860092473361323 0.0022504628387043377 0.0015064641847850366 0.0012072146303744923 0.0011219706104882473 0.0011357489309841095 
0.0001559788687589057 0.005295131946872643 -0.004361971060742259 0.0039349163397506635 0.004856129786132273 0.003860092473361323 0.0031502832517732765 0.0028805880812750578 0.002896486457196748 0.0030659352922971167 0.003311268703840779 0.0035923463384260656 
0.00022878393855588585 -0.0008961975056436091 -0.0030189095672431662 -0.0003712152341472044 0.0013215300792606204 0.0022504628387043377 0.0028805880812750578 0.0034009475376717687 0.00388143024390496 0.004347534504316414 0.004808488763131376 0.005267607782222391 
0.00028221611241655914 -0.004697357786015875 -0.0019046365715353496 -0.00245674457377976 -0.0004685084828929025 0.0015064641847850366 0.002896486457196748 0.00388143024390496 0.00464748435485092 0.0053056662560746004 0.005913222522415191 0.006497729120796104 
0.0003258320004957686 -0.0070326228626093265 -0.0012734071232593203 -0.0035897165109044227 -0.0014022047869923612 0.0012072146303744923 0.0030659352922971167 0.004347534504316414 0.0053056662560746004 0.0061011902005441996 0.006819413431951334 0.007502120070685651 
0.00036475944537714617 -0.0085976303721187 -0.000976610403845923 -0.004317326327114594 -0.0019353439210595283 0.0011219706104882473 0.003311268703840779 0.004808488763131376 0.005913222522415191 0.006819413431951334 0.007630838009664897 0.008398595024137919 
0.00040152624276102426 -0.009787354059664593 -0.0008651126553427123 -0.004873403192328928 -0.0022867112322912677 0.0011357489309841095 0.0035923463384260656 0.005267607782222391 0.006497729120796104 0.007502120070685651 0.008398595024137919 0.009245285178060673 
