7.894372645346261e-06 -0.00010259070226562414 6.506646833923942e-05 -9.01789279590423e-05 -4.315849478286018e-05 2.3815158089879087e-05 7.149589581544886e-05 0.00010388688624267694 0.000127718187131014 0.00014726334888228305 0.00016477602110292303 0.0001813546159696038 
-0.00010259070226562414 0.16924040558492298 0.016532971273847265 -0.01936743482546035 -0.004275955445224638 -0.0003884043561228558 -0.00035780315920225074 -0.0009791167874955813 -0.001533161235340555 -0.0019480697272775847 -0.002268869917366687 -0.002538729874144133 
6.506646833923942e-05 0.016532971273847265 0.18686126679964368 0.03255114020205138 -0.009814067223163955 -0.011300014736625412 -0.0067478207312769 -0.003078892488310274 -0.0008801916079917984 0.000327166165459509 0.0009874926353121154 0.0013715362435774156 
-9.01789279590423e-05 -0.01936743482546035 0.03255114020205138 0.03621849428249014 0.0171405555986952 0.006731823796835946 0.0020508322131231153 -2.3763548257160983e-05 -0.0009874761105824932 -0.0014884213884149699 -0.0017989755088897708 -0.0020318160212026044 
-4.315849478286018e-05 -0.004275955445224638 -0.009814067223163955 0.0171405555986952 0.013244813876935428 0.006958646841271134 0.0030853975950287465 0.0010504205883755766 2.764775147324122e-05 -0.0004929155349038813 -0.0007768041882174263 -0.0009524658711167832 
2.3815158089879087e-05 -0.0003884043561228558 -0.011300014736625412 0.006731823796835946 0.006958646841271134 0.00425705441591207 0.0023604044692326583 0.001341051364380878 0.0008548976225464339 0.000647553367412174 0.0005762952452942373 0.0005689326673389088 
7.149589581544886e-05 -0.00035780315920225074 -0.0067478207312769 0.0020508322131231153 0.0030853975950287465 0.0023604044692326583 0.0017724342164303628 0.001488223277848597 0.0014094464827946733 0.0014436649131759447 0.0015348555467971058 0.0016534464803426908 
0.00010388688624267694 -0.0009791167874955813 -0.003078892488310274 -2.3763548257160983e-05 0.0010504205883755766 0.001341051364380878 0.001488223277848597 0.0016363294192137275 0.0018060878652961985 0.001992837717075034 0.0021897416186078275 0.002392080434809557 
0.000127718187131014 -0.001533161235340555 -0.0008801916079917984 -0.0009874761105824932 2.764775147324122e-05 0.0008548976225464339 0.0014094464827946733 0.0018060878652961985 0.0021251651957482354 0.0024085992075692925 0.002676237202511073 0.0029370275511820133 
0.00014726334888228305 -0.0019480697272775847 0.000327166165459509 -0.0014884213884149699 -0.0004929155349038813 0.000647553367412174 0.0014436649131759447 0.001992837717075034 0.0024085992075692925 0.00275899059913224 0.003078884096265374 0.003384949904765311 
0.00016477602110292303 -0.002268869917366687 0.0009874926353121154 -0.0017989755088897708 -0.0007768041882174263 0.0005762952452942373 0.0015348555467971058 0.0021897416186078275 0.002676237202511073 0.003078884096265374 0.0034419325075546285 0.0037868434746700184 
0.0001813546159696038 -0.002538729874144133 0.0013715362435774156 -0.0020318160212026044 -0.0009524658711167832 0.0005689326673389088 0.0016534464803426908 0.002392080434809557 0.0029370275511820133 0.003384949904765311 0.0037868434746700184 0.0041675745046232246 
