1.1769191817598825e-05 -5.226963738081508e-06 0.0002923642062769226 -0.00015868749850605297 -0.00010224570477230239 1.1867334356866389e-05 9.420875630629774e-05 0.00014892338063755267 0.0001877456501637196 0.00021848705083540363 0.00024535633113078654 0.00027043291009205757 
-5.226963738081508e-06 0.23568427465464753 -0.005292723115480121 -0.02184964151128265 0.0054312763539899256 0.008206174800306599 0.005386056725451161 0.002767981488681671 0.0011431493387650247 0.000253893862641856 -0.0002138890783812121 -0.0004645975744547513 
0.0002923642062769226 -0.005292723115480121 0.26236908523639724 0.062363713914645014 -0.004023521301805955 -0.010363290659764941 -0.005563528638118842 -0.0007672895436887652 0.0024618797939896502 0.004483798923531871 0.005801731488007106 0.0067524327410594335 
-0.00015868749850605297 -0.02184964151128265 0.062363713914645014 0.05740340246777119 0.026595528628010946 0.010398341603873783 0.0030871745596082055 -0.00020949439866443546 -0.001780708495974373 -0.002621509306111223 -0.0031556091574632674 -0.003561652985630369 
-0.00010224570477230239 0.0054312763539899256 -0.004023521301805955 0.026595528628010946 0.020004756138218574 0.01044413687347141 0.004431817683021175 0.0011772783113600904 -0.0005226226384427286 -0.001434038877992283 -0.0019665152404692624 -0.0023227765577730278 
1.1867334356866389e-05 0.008206174800306599 -0.010363290659764941 0.010398341603873783 0.01044413687347141 0.006359024637858628 0.003399504374913387 0.001746977829301275 0.0009145950214542661 0.0005215830064980919 0.00034722547485481627 0.00027711560039569755 
9.420875630629774e-05 0.005386056725451161 -0.005563528638118842 0.0030871745596082055 0.004431817683021175 0.003399504374913387 0.002512490362099523 0.0020527713092648274 0.0018965000678206304 0.0019122993592707242 0.0020167882867484746 0.0021646217593724432 
0.00014892338063755267 0.002767981488681671 -0.0007672895436887652 -0.00020949439866443546 0.0011772783113600904 0.001746977829301275 0.0020527713092648274 0.0023093170504342605 0.0025713882528503105 0.002846570374455502 0.0031316266961783665 0.0034225683518914417 
0.0001877456501637196 0.0011431493387650247 0.0024618797939896502 -0.001780708495974373 -0.0005226226384427286 0.0009145950214542661 0.0018965000678206304 0.0025713882528503105 0.0030862112135861303 0.003524651829171252 0.003928232617997451 0.004316309917531544 
0.00021848705083540363 0.000253893862641856 0.004483798923531871 -0.002621509306111223 -0.001434038877992283 0.0005215830064980919 0.0019122993592707242 0.002846570374455502 0.003524651829171252 0.00407437604937896 0.0045632502376822355 0.005024187970588403 
0.00024535633113078654 -0.0002138890783812121 0.005801731488007106 -0.0031556091574632674 -0.0019665152404692624 0.00034722547485481627 0.0020167882867484746 0.0031316266961783665 0.003928232617997451 0.0045632502376822355 0.005120900885949943 0.005642747376181113 
0.00027043291009205757 -0.0004645975744547513 0.0067524327410594335 -0.003561652985630369 -0.0023227765577730278 0.00027711560039569755 0.0021646217593724432 0.0034225683518914417 0.004316309917531544 0.005024187970588403 0.005642747376181113 0.006219849194097031 
