3.628416928962993e-06 -8.765114955007323e-05 1.7873060662490825e-05 -7.262533820721312e-05 -4.573755799119857e-05 -4.395829883736249e-06 2.489353140190869e-05 4.397384617855922e-05 5.711864328258714e-05 6.720152115469214e-05 7.579614527577541e-05 8.369275670971363e-05 
-8.765114955007323e-05 0.11076620342703525 0.014733836809976366 -0.004651431468690423 0.002218044129182075 0.0023962745203270084 0.000981727455369591 -0.0002472484129151366 -0.001073789692609275 -0.0016110946243090899 -0.0019819736394602245 -0.002266007047911853 
1.7873060662490825e-05 0.014733836809976366 0.1032843593339253 0.022049067689239726 -0.002170002076504903 -0.004538254932297241 -0.002992659394096971 -0.0014745844362651556 -0.0005168572196615568 1.6573163207819925e-05 0.00030552102577794315 0.00046833895792141174 
-7.262533820721312e-05 -0.004651431468690423 0.022049067689239726 0.021371122133628375 0.010458923956681193 0.00423346361211479 0.001267906114517481 -0.00012747297553146415 -0.0008163227774921067 -0.0011948858658570067 -0.001439062752622859 -0.0016256002720771371 
-4.573755799119857e-05 0.002218044129182075 -0.002170002076504903 0.010458923956681193 0.00790280272921711 0.004095961165769986 0.0016915302361991604 0.00038456309444481594 -0.00030284290308932847 -0.0006760600801333679 -0.0008984408616186855 -0.0010508022286460931 
-4.395829883736249e-06 0.0023962745203270084 -0.004538254932297241 0.00423346361211479 0.004095961165769986 0.002407138173085523 0.0012081973792945084 0.0005383746417932224 0.0001945277029829904 2.346093196539491e-05 -6.231822426726026e-05 -0.00010772122764040852 
2.489353140190869e-05 0.000981727455369591 -0.002992659394096971 0.001267906114517481 0.0016915302361991604 0.0012081973792945084 0.0008211486309843533 0.0006155085530510876 0.0005321055338649475 0.0005161497052595758 0.0005342901107625265 0.0005688348997780032 
4.397384617855922e-05 -0.0002472484129151366 -0.0014745844362651556 -0.00012747297553146415 0.00038456309444481594 0.0005383746417932224 0.0006155085530510876 0.0006853272047279658 0.0007606789747591221 0.0008414752427077396 0.0009257039446957854 0.0010117944818058336 
5.711864328258714e-05 -0.001073789692609275 -0.0005168572196615568 -0.0008163227774921067 -0.00030284290308932847 0.0001945277029829904 0.0005321055338649475 0.0007606789747591221 0.000930309577131602 0.0010706946227424154 0.0011972122631795047 0.0013173351392199058 
6.720152115469214e-05 -0.0016110946243090899 1.6573163207819925e-05 -0.0011948858658570067 -0.0006760600801333679 2.346093196539491e-05 0.0005161497052595758 0.0008414752427077396 0.0010706946227424154 0.0012506145919619898 0.0014066415629226095 0.0015514779861622642 
7.579614527577541e-05 -0.0019819736394602245 0.00030552102577794315 -0.001439062752622859 -0.0008984408616186855 -6.231822426726026e-05 0.0005342901107625265 0.0009257039446957854 0.0011972122631795047 0.0014066415629226095 0.0015858041676172043 0.0017507308813666876 
8.369275670971363e-05 -0.002266007047911853 0.00046833895792141174 -0.0016256002720771371 -0.0010508022286460931 -0.00010772122764040852 0.0005688348997780032 0.0010117944818058336 0.0013173351392199058 0.0015514779861622642 0.0017507308813666876 0.0019335463048910488 
