8.167415330847332e-07 -2.411943102746591e-05 2.023696425806201e-05 -8.47046549534939e-06 -7.4742859065533235e-06 1.892383899604931e-07 6.161727405009087e-06 1.0164306126186078e-05 1.2964783298728451e-05 1.5144076113828567e-05 1.7026213624208278e-05 1.877235613190443e-05 
-2.411943102746591e-05 0.017677739811257514 0.0015596319665854574 -0.0011322251013595986 0.0003265835864377287 0.00035476770507157315 7.868193911210632e-05 -0.00015742077009033028 -0.00031744077082697793 -0.0004249192586200624 -0.0005031261234521422 -0.0005665003518060905 
2.023696425806201e-05 0.0015596319665854574 0.022848753240949322 0.0054541645252737785 -0.00012980108404535675 -0.0007423614599153157 -0.0004180629070053721 -7.272826990620551e-05 0.00015972771853593894 0.0003034090880043399 0.00039555402215234555 0.00046112308066724434 
-8.47046549534939e-06 -0.0011322251013595986 0.0054541645252737785 0.003842552618186188 0.0015506070808311823 0.0005382030881390951 0.00013194907132356453 -3.47299560717257e-05 -0.00010909084313187873 -0.0001480569556631161 -0.00017347496771681436 -0.00019371012142532947 
-7.4742859065533235e-06 0.0003265835864377287 -0.00012980108404535675 0.0015506070808311823 0.0011213363565973347 0.0005634580380813051 0.0002195097008503196 3.4529045085358164e-05 -6.264303739701148e-05 -0.00011598568466028797 -0.00014856788429542088 -0.00017162816966220448 
1.892383899604931e-07 0.00035476770507157315 -0.0007423614599153157 0.0005382030881390951 0.0005634580380813051 0.00034157826613788315 0.00017869054310805732 8.741715874017616e-05 4.12014397053566e-05 1.9033527520411917e-05 8.758272794275895e-06 4.110738647099175e-06 
6.161727405009087e-06 7.868193911210632e-05 -0.0004180629070053721 0.00013194907132356453 0.0002195097008503196 0.00017869054310805732 0.0001411415253680182 0.0001228615778161149 0.00011875001474184387 0.0001227856084036073 0.00013105392780096733 0.00014140158634155 
1.0164306126186078e-05 -0.00015742077009033028 -7.272826990620551e-05 -3.47299560717257e-05 3.4529045085358164e-05 8.741715874017616e-05 0.0001228615778161149 0.00014924972154450286 0.00017174082794631291 0.00019273467921474978 0.0002132111446827715 0.00023353232180691627 
1.2964783298728451e-05 -0.00031744077082697793 0.00015972771853593894 -0.00010909084313187873 -6.264303739701148e-05 4.12014397053566e-05 0.00011875001474184387 0.00017174082794631291 0.00021059682301054376 0.00024240894435496643 0.0002709488824810884 0.00029803037376097786 
1.5144076113828567e-05 -0.0004249192586200624 0.0003034090880043399 -0.0001480569556631161 -0.00011598568466028797 1.9033527520411917e-05 0.0001227856084036073 0.00019273467921474978 0.00024240894435496643 0.00028170936992095237 0.00031608427003358095 0.00034821927212434783 
1.7026213624208278e-05 -0.0005031261234521422 0.00039555402215234555 -0.00017347496771681436 -0.00014856788429542088 8.758272794275895e-06 0.00013105392780096733 0.0002132111446827715 0.0002709488824810884 0.00031608427003358095 0.00035519501584918496 0.0003915493284684051 
1.877235613190443e-05 -0.0005665003518060905 0.00046112308066724434 -0.00019371012142532947 -0.00017162816966220448 4.110738647099175e-06 0.00014140158634155 0.00023353232180691627 0.00029803037376097786 0.00034821927212434783 0.0003915493284684051 0.00043173390612369513 
