2.0485544456606642e-05 -2.7353151156658585e-05 0.002841518633135892 -2.6151460729890634e-05 -0.00021242614621684813 -2.859540446931561e-06 0.0001600294399873909 0.00026171942417071303 0.0003295251438380983 0.0003817085059890487 0.0004272228665279949 0.00047000197470388905 
-2.7353151156658585e-05 0.12165630767943406 -0.013087779064573452 -0.011229553512699445 -0.0036383493052048405 -0.0021786332516839295 -0.0015136690771298679 -0.0010584985854906889 -0.0007951199459147419 -0.0006767550864266565 -0.0006456437607979821 -0.0006603449097597068 
0.002841518633135892 -0.013087779064573452 3.5830288498527048 0.4496918723364892 -0.10494740576222518 -0.08658258111048853 -0.024093843562559232 0.015556042569605227 0.0371135703031017 0.04952999770919273 0.057932974009659834 0.06468522153714198 
-2.6151460729890634e-05 -0.011229553512699445 0.4496918723364892 0.1976491183742939 0.05818599762686081 0.01583654911572807 0.0038663322713899974 0.0006074196128035854 -0.00025093582809078115 -0.0004813991544787018 -0.0005615522777348801 -0.0006119765405495666 
-0.00021242614621684813 -0.0036383493052048405 -0.10494740576222518 0.05818599762686081 0.04086830555053925 0.017764005159784168 0.005638923251783236 0.00014364406559900215 -0.0023278367639026115 -0.0035492415563299316 -0.004277898258455957 -0.004817306127606659 
-2.859540446931561e-06 -0.0021786332516839295 -0.08658258111048853 0.01583654911572807 0.017764005159784168 0.009258017137516584 0.004069053262106656 0.0016479783573953451 0.0006221713066414188 0.00020615052757212016 3.983224712949403e-05 -2.7755947219812875e-05 
0.0001600294399873909 -0.0015136690771298679 -0.024093843562559232 0.0038663322713899974 0.005638923251783236 0.004069053262106656 0.0031275931379060617 0.0028384425620005815 0.0028959459947806086 0.003109074513860392 0.003386962583866506 0.0036907093564895986 
0.00026171942417071303 -0.0010584985854906889 0.015556042569605227 0.0006074196128035854 0.00014364406559900215 0.0016479783573953451 0.0028384425620005815 0.00368602601580998 0.004350923645090478 0.004933152926407 0.005480406853604404 0.0060133538040446285 
0.0003295251438380983 -0.0007951199459147419 0.0371135703031017 -0.00025093582809078115 -0.0023278367639026115 0.0006221713066414188 0.0028959459947806086 0.004350923645090478 0.005359476528263067 0.006163915778692102 0.006881697382005473 0.007564070715496945 
0.0003817085059890487 -0.0006767550864266565 0.04952999770919273 -0.0004813991544787018 -0.0035492415563299316 0.00020615052757212016 0.003109074513860392 0.004933152926407 0.006163915778692102 0.007122167487409423 0.007964396690756463 0.008759135164321821 
0.0004272228665279949 -0.0006456437607979821 0.057932974009659834 -0.0005615522777348801 -0.004277898258455957 3.983224712949403e-05 0.003386962583866506 0.005480406853604404 0.006881697382005473 0.007964396690756463 0.008911255936450112 0.009802453353577283 
0.00047000197470388905 -0.0006603449097597068 0.06468522153714198 -0.0006119765405495666 -0.004817306127606659 -2.7755947219812875e-05 0.0036907093564895986 0.0060133538040446285 0.007564070715496945 0.008759135164321821 0.009802453353577283 0.010783559194046305 
