1.3689146248459842e-05 8.739332724247637e-05 0.0019998989606018172 -0.0001747449634145287 -0.0002311814039600281 -3.9648370684008876e-05 9.266033888710842e-05 0.00016984677473338495 0.000218509470583625 0.00025453118246361497 0.0002853232251547132 0.00031402875003063406 
8.739332724247637e-05 0.10184152130335929 -0.005370000291796809 -0.022839960399678387 -0.006109229422947848 -0.0006686490804510367 0.0008509302501667926 0.0013115739036210837 0.0015209243050047436 0.0016847911848718539 0.0018477033504561973 0.0020155196461453433 
0.0019998989606018172 -0.005370000291796809 2.3403116622702163 0.306962712217878 -0.06868745990235958 -0.060171613782833686 -0.018093695281149073 0.009760411757617028 0.025341676104657988 0.03443548843524269 0.0405668503791422 0.04543371734373811 
-0.0001747449634145287 -0.022839960399678387 0.306962712217878 0.15168449685038338 0.04513892562035886 0.010715810151517865 0.0006659742225425119 -0.0021615082419698993 -0.0030229755566956035 -0.003417385795295269 -0.0037324761386879238 -0.00405129014380238 
-0.0002311814039600281 -0.006109229422947848 -0.06868745990235958 0.04513892562035886 0.030030172777289792 0.012373017543230648 0.0031873045008619346 -0.0010258002803231114 -0.0029935820230995716 -0.004038972474083099 -0.0047226698907674135 -0.005268125281866061 
-3.9648370684008876e-05 -0.0006686490804510367 -0.060171613782833686 0.010715810151517865 0.012373017543230648 0.006350239370895526 0.0025427062834071637 0.0006885445414273612 -0.00015548596989062023 -0.0005484147404515201 -0.0007528257407042561 -0.0008812250419580372 
9.266033888710842e-05 0.0008509302501667926 -0.018093695281149073 0.0006659742225425119 0.0031873045008619346 0.0025427062834071637 0.001964802019839556 0.0017329473880527346 0.0017220371001145911 0.001821371182081402 0.001970501597351199 0.0021409672128138947 
0.00016984677473338495 0.0013115739036210837 0.009760411757617028 -0.0021615082419698993 -0.0010258002803231114 0.0006885445414273612 0.0017329473880527346 0.0023682240624028207 0.0028219305665466462 0.00320368915128563 0.0035585083544694878 0.003903558948818516 
0.000218509470583625 0.0015209243050047436 0.025341676104657988 -0.0030229755566956035 -0.0029935820230995716 -0.00015548596989062023 0.0017220371001145911 0.0028219305665466462 0.003535650435534237 0.0040827796910455245 0.004562493674397874 0.005015831922047533 
0.00025453118246361497 0.0016847911848718539 0.03443548843524269 -0.003417385795295269 -0.004038972474083099 -0.0005484147404515201 0.001821371182081402 0.00320368915128563 0.0040827796910455245 0.004741027136850289 0.005308629627759614 0.005840316780510668 
0.0002853232251547132 0.0018477033504561973 0.0405668503791422 -0.0037324761386879238 -0.0047226698907674135 -0.0007528257407042561 0.001970501597351199 0.0035585083544694878 0.004562493674397874 0.005308629627759614 0.005948414389877737 0.006545879994208996 
0.00031402875003063406 0.0020155196461453433 0.04543371734373811 -0.00405129014380238 -0.005268125281866061 -0.0008812250419580372 0.0021409672128138947 0.003903558948818516 0.005015831922047533 0.005840316780510668 0.006545879994208996 0.007204044558621681 
