7.528973834062302e-06 -2.6465138415258542e-05 -0.00010229052283164111 -6.068488746107952e-05 5.265224134755965e-06 5.3006825490275786e-05 8.457442856497304e-05 0.00010725513758811372 0.0001256444860983814 0.00014210283071129962 0.00015773293277155284 0.0001730197556637135 
-2.6465138415258542e-05 0.053899149372404705 -0.02409827897215682 0.003455104629664951 0.0069870551268757485 0.0037727750649714227 0.0014745545403146722 0.00034211387477323433 -0.00016487868474859992 -0.000396423532990161 -0.0005168941644372614 -0.0005947195091684667 
-0.00010229052283164111 -0.02409827897215682 1.102473870385898 0.1641229123570352 -0.025659745217622574 -0.03128654076962299 -0.0177650149694666 -0.008949995705158918 -0.004818553762855649 -0.0031664347699911903 -0.002620874450166758 -0.002532332119840319 
-6.068488746107952e-05 0.003455104629664951 0.1641229123570352 0.06362214767678591 0.017481066156782483 0.0041353570040942 0.0004200820570638697 -0.0006372299877223297 -0.0009847375395615893 -0.0011526476597198871 -0.001279628136666373 -0.0013994036393357053 
5.265224134755965e-06 0.0069870551268757485 -0.025659745217622574 0.017481066156782483 0.012737937487460833 0.006085582764488672 0.0025979115389832925 0.001079720976752073 0.00047231231341695825 0.000243432540660009 0.00016355710848737522 0.00014050324277914262 
5.3006825490275786e-05 0.0037727750649714227 -0.03128654076962299 0.0041353570040942 0.006085582764488672 0.0036262693312606713 0.002048294343397756 0.0013540377412037865 0.0011209428531795355 0.0010912981695202562 0.0011448220739552967 0.0012309441655598068 
8.457442856497304e-05 0.0014745545403146722 -0.0177650149694666 0.0004200820570638697 0.0025979115389832925 0.002048294343397756 0.0016181624814823126 0.0014856184396135259 0.0015238628092806303 0.001640033532375885 0.0017885588222833599 0.001949867119491989 
0.00010725513758811372 0.00034211387477323433 -0.008949995705158918 -0.0006372299877223297 0.001079720976752073 0.0013540377412037865 0.0014856184396135259 0.0016475016990003782 0.0018382870346042798 0.002043346731232459 0.002254320618693521 0.0024675554865310877 
0.0001256444860983814 -0.00016487868474859992 -0.004818553762855649 -0.0009847375395615893 0.00047231231341695825 0.0011209428531795355 0.0015238628092806303 0.0018382870346042798 0.0021165251265310684 0.002379240466156835 0.0026352924131490115 0.002888530996083174 
0.00014210283071129962 -0.000396423532990161 -0.0031664347699911903 -0.0011526476597198871 0.000243432540660009 0.0010912981695202562 0.001640033532375885 0.002043346731232459 0.002379240466156835 0.002685174285233217 0.002978281794589189 0.003266061597850897 
0.00015773293277155284 -0.0005168941644372614 -0.002620874450166758 -0.001279628136666373 0.00016355710848737522 0.0011448220739552967 0.0017885588222833599 0.002254320618693521 0.0026352924131490115 0.002978281794589189 0.003304997883208979 0.003624967713660111 
0.0001730197556637135 -0.0005947195091684667 -0.002532332119840319 -0.0013994036393357053 0.00014050324277914262 0.0012309441655598068 0.001949867119491989 0.0024675554865310877 0.002888530996083174 0.003266061597850897 0.003624967713660111 0.003976155031378139 
