3.517402448802855e-06 -1.064510354313863e-05 0.00015512412060897463 -8.263589505094463e-05 -4.0985830561158764e-05 5.167483558969023e-06 3.189555072091347e-05 4.734353412649753e-05 5.773314499802923e-05 6.605816033640668e-05 7.357898505588971e-05 8.079465134562655e-05 
-1.064510354313863e-05 0.020145089264673045 0.002935581491161678 0.0018939676164818901 0.0014415343016719617 0.0006081643234345592 0.00015228954313298862 -5.181565883326717e-05 -0.00014268669078888236 -0.0001890649802920582 -0.00021909872198091237 -0.00024336411918649578 
0.00015512412060897463 0.002935581491161678 0.39221318156616053 0.03460812933061939 -0.018784258694636888 -0.013142157890527055 -0.00518616914968156 -0.0007278995429117104 0.0014219342053483082 0.0024808342538562996 0.0030822567960912023 0.003502808491671828 
-8.263589505094463e-05 0.0018939676164818901 0.03460812933061939 0.02326715539824127 0.008515221077319092 0.00237643020792568 5.733061946268574e-05 -0.0008559304563573349 -0.001276044029555605 -0.0015271335553219696 -0.0017210885911661423 -0.0018959003341802547 
-4.0985830561158764e-05 0.0014415343016719617 -0.018784258694636888 0.008515221077319092 0.006296340882856722 0.0027028010596261026 0.0007782355068519143 -0.00010123827205400073 -0.000502099097963361 -0.0007063745195414747 -0.0008341283863827128 -0.0009329868113949281 
5.167483558969023e-06 0.0006081643234345592 -0.013142157890527055 0.00237643020792568 0.0027028010596261026 0.0014313020820311358 0.0006658844818497611 0.00031957619918017286 0.000181861998176816 0.00013383559825131173 0.00012183848712783726 0.0001237821346812768 
3.189555072091347e-05 0.00015228954313298862 -0.00518616914968156 5.733061946268574e-05 0.0007782355068519143 0.0006658844818497611 0.0005649031932648537 0.0005426224923333457 0.000568142811663872 0.0006161409506003785 0.0006736806742087918 0.0007350596221428284 
4.734353412649753e-05 -5.181565883326717e-05 -0.0007278995429117104 -0.0008559304563573349 -0.00010123827205400073 0.00031957619918017286 0.0005426224923333457 0.0006844388656326177 0.0007958769673378855 0.0008964195214523707 0.0009931375170393376 0.0010885274533854001 
5.773314499802923e-05 -0.00014268669078888236 0.0014219342053483082 -0.001276044029555605 -0.000502099097963361 0.000181861998176816 0.000568142811663872 0.0007958769673378855 0.0009551679423161891 0.0010872075542186358 0.0012088302256645488 0.0013265602897741548 
6.605816033640668e-05 -0.0001890649802920582 0.0024808342538562996 -0.0015271335553219696 -0.0007063745195414747 0.00013383559825131173 0.0006161409506003785 0.0008964195214523707 0.0010872075542186358 0.0012417628939370054 0.0013822922914954617 0.0015175266288255816 
7.357898505588971e-05 -0.00021909872198091237 0.0030822567960912023 -0.0017210885911661423 -0.0008341283863827128 0.00012183848712783726 0.0006736806742087918 0.0009931375170393376 0.0012088302256645488 0.0013822922914954617 0.0015393417400458604 0.001690174981391864 
8.079465134562655e-05 -0.00024336411918649578 0.003502808491671828 -0.0018959003341802547 -0.0009329868113949281 0.0001237821346812768 0.0007350596221428284 0.0010885274533854001 0.0013265602897741548 0.0015175266288255816 0.001690174981391864 0.0018558772727650388 
