3.094217470850188e-05 -0.00016614938020218957 0.0038317566903856132 -0.00024000652709607902 -0.0004004136009316782 -3.3592890607996435e-05 0.0002321276211259219 0.00039266778815978925 0.0004972214205731755 0.0005765749630743429 0.000645397246239294 0.0007099888917698545 
-0.00016614938020218957 0.21513079676511074 0.06969321935954266 -0.02271573793028419 -0.010368046857947684 -0.00491760048195771 -0.0032762309441222185 -0.002918832026622563 -0.002995369872886843 -0.0032273445783418723 -0.0035186714494985145 -0.0038338489221274126 
0.0038317566903856132 0.06969321935954266 4.329618175489438 0.625636695951802 -0.10697050186514664 -0.10480595877227156 -0.030292962910986276 0.02065106891406621 0.049470391296915606 0.06641369701181334 0.0779288258485757 0.08714081245781534 
-0.00024000652709607902 -0.02271573793028419 0.625636695951802 0.29043098935998035 0.08570937654018039 0.021256015018203685 0.002664070807081892 -0.0025170123536692344 -0.0040403184584484105 -0.0046676022105753175 -0.005120852566752195 -0.005563364387803231 
-0.0004004136009316782 -0.010368046857947684 -0.10697050186514664 0.08570937654018039 0.05607856419095096 0.02329829645966222 0.006299954364572114 -0.0014746429352407442 -0.005074731690790921 -0.006957401588024116 -0.008167108365703942 -0.00912039656330152 
-3.3592890607996435e-05 -0.00491760048195771 -0.10480595877227156 0.021256015018203685 0.02329829645966222 0.012068793803073317 0.00511442218113597 0.0017994749649758298 0.00034744967454155125 -0.0002806258135943096 -0.0005683099491427911 -0.0007206029285698337 
0.0002321276211259219 -0.0032762309441222185 -0.030292962910986276 0.002664070807081892 0.006299954364572114 0.00511442218113597 0.004248892839400875 0.0040198817574350855 0.004169384269804433 0.004500138171068112 0.004909981966188227 0.005352621373015543 
0.00039266778815978925 -0.002918832026622563 0.02065106891406621 -0.0025170123536692344 -0.0014746429352407442 0.0017994749649758298 0.0040198817574350855 0.005453434177641358 0.006505611369763141 0.0073959069039879624 0.008221553881010804 0.009022187818718611 
0.0004972214205731755 -0.002995369872886843 0.049470391296915606 -0.0040403184584484105 -0.005074731690790921 0.00034744967454155125 0.004169384269804433 0.006505611369763141 0.008072558254789678 0.009298870033554122 0.010384573026336608 0.011414357476248301 
0.0005765749630743429 -0.0032273445783418723 0.06641369701181334 -0.0046676022105753175 -0.006957401588024116 -0.0002806258135943096 0.004500138171068112 0.0073959069039879624 0.009298870033554122 0.010757736038770423 0.012031880364160794 0.013232104170953145 
0.000645397246239294 -0.0035186714494985145 0.0779288258485757 -0.005120852566752195 -0.008167108365703942 -0.0005683099491427911 0.004909981966188227 0.008221553881010804 0.010384573026336608 0.012031880364160794 0.013464067974379155 0.01480997007658616 
0.0007099888917698545 -0.0038338489221274126 0.08714081245781534 -0.005563364387803231 -0.00912039656330152 -0.0007206029285698337 0.005352621373015543 0.009022187818718611 0.011414357476248301 0.013232104170953145 0.01480997007658616 0.016291528893692064 
