2.507915145863144e-06 -5.017724602773936e-05 -3.5005106477342e-05 -4.241369020517355e-05 -1.681064188607045e-05 6.842242816214732e-06 2.2507144975212177e-05 3.288523502416275e-05 4.0447845467747164e-05 4.663000300391609e-05 5.216517140307554e-05 5.7405770753097335e-05 
-5.017724602773936e-05 0.046392608327010476 -0.0022987769923689875 -0.0038145809343154385 0.0011736951007131912 0.0013332553424839472 0.000529513063558833 -0.00015602645468555188 -0.0006084031548864766 -0.0008987023165464377 -0.001098234571630372 -0.00125153519929059 
-3.5005106477342e-05 -0.0022987769923689875 0.05600854690114771 0.0153833906433029 0.0002012543228776214 -0.002191067484404551 -0.001875886434100866 -0.0013290966414147998 -0.0009823238480600636 -0.0008203969996312356 -0.0007708463380756702 -0.0007805632029480614 
-4.241369020517355e-05 -0.0038145809343154385 0.0153833906433029 0.013470114481705011 0.006107464137797654 0.0023092279129980756 0.0006107401188404383 -0.00015313077418710884 -0.0005204190482221723 -0.0007219373291885281 -0.0008547082022635664 -0.0009591109262294988 
-1.681064188607045e-05 0.0011736951007131912 0.0002012543228776214 0.006107464137797654 0.004280538553326693 0.0021779882545176735 0.0009261394077034508 0.0002723504638802379 -5.8356545067189844e-05 -0.00022992567712762824 -0.0003267905956177635 -0.00038960583230902135 
6.842242816214732e-06 0.0013332553424839472 -0.002191067484404551 0.0023092279129980756 0.0021779882545176735 0.001309306663150498 0.0007150916982504398 0.0003967984837868637 0.0002444022234372546 0.00017843077841321882 0.00015452191943176756 0.00015029231945939457 
2.2507144975212177e-05 0.000529513063558833 -0.001875886434100866 0.0006107401188404383 0.0009261394077034508 0.0007150916982504398 0.0005405667066221496 0.00045628578279487673 0.00043379433034272376 0.0004453909556963677 0.00047415428124555605 0.000511142725204509 
3.288523502416275e-05 -0.00015602645468555188 -0.0013290966414147998 -0.00015313077418710884 0.0002723504638802379 0.0003967984837868637 0.00045628578279487673 0.0005086101370500051 0.0005646554537929807 0.0006246300797152824 0.000687113366367552 0.000750969410696708 
4.0447845467747164e-05 -0.0006084031548864766 -0.0009823238480600636 -0.0005204190482221723 -5.8356545067189844e-05 0.0002444022234372546 0.00043379433034272376 0.0005646554537929807 0.0006678009564501268 0.0007583160962080466 0.0008432126315639905 0.0009256537921968448 
4.663000300391609e-05 -0.0008987023165464377 -0.0008203969996312356 -0.0007219373291885281 -0.00022992567712762824 0.00017843077841321882 0.0004453909556963677 0.0006246300797152824 0.0007583160962080466 0.0008699673822655062 0.0009713772066737338 0.0010681502597225437 
5.216517140307554e-05 -0.001098234571630372 -0.0007708463380756702 -0.0008547082022635664 -0.0003267905956177635 0.00015452191943176756 0.00047415428124555605 0.000687113366367552 0.0008432126315639905 0.0009713772066737338 0.0010864161290824435 0.0011954619214393516 
5.7405770753097335e-05 -0.00125153519929059 -0.0007805632029480614 -0.0009591109262294988 -0.00038960583230902135 0.00015029231945939457 0.000511142725204509 0.000750969410696708 0.0009256537921968448 0.0010681502597225437 0.0011954619214393516 0.0013158185609261804 
