3.4714304191509373e-06 -0.00012319695613742648 8.795402178911009e-05 -5.004397608537201e-05 -4.507768119015801e-05 -7.948716157865392e-06 2.1156154740503213e-05 4.0516788618608075e-05 5.3746330290633314e-05 6.37098080546541e-05 7.206311734515625e-05 7.965756979677793e-05 
-0.00012319695613742648 0.06857305666942382 -0.006560310021779603 -0.004008505876578181 0.003566078432022819 0.002776094882134221 0.0008289666412508534 -0.0006262137358286268 -0.0015495220409567833 -0.0021409547618866783 -0.002556523863047042 -0.0028859144396165028 
8.795402178911009e-05 -0.006560310021779603 0.08862886600691168 0.021654284233145155 -0.0013254407365592782 -0.003598905969234776 -0.0020016917078036415 -0.0003993645765825191 0.0006676111053011277 0.0013242613538999764 0.0017434619783592532 0.002039891535541161 
-5.004397608537201e-05 -0.004008505876578181 0.021654284233145155 0.020061170253259045 0.009562850807286465 0.0038420102152180377 0.0012223345675156855 4.090718360701378e-05 -0.0005144928758173867 -0.0008036864016158733 -0.0009812109805246239 -0.0011123337573392751 
-4.507768119015801e-05 0.003566078432022819 -0.0013254407365592782 0.009562850807286465 0.0071495336777785854 0.003639813347397615 0.0014493804089718667 0.0002715056930897463 -0.000343543470970728 -0.0006775033842921032 -0.0008785343812733926 -0.0010187558532376044 
-7.948716157865392e-06 0.002776094882134221 -0.003598905969234776 0.0038420102152180377 0.003639813347397615 0.00208796525741387 0.0010060808484224973 0.00040814375424179004 0.00010217146659246622 -5.1697069444408337e-05 -0.00013165005499982566 -0.00017711244204332815 
2.1156154740503213e-05 0.0008289666412508534 -0.0020016917078036415 0.0012223345675156855 0.0014493804089718667 0.0010060808484224973 0.0006782193994137637 0.0005112884528277979 0.0004471710841751203 0.00043807579604911097 0.000456176505968867 0.00048712831904892647 
4.0516788618608075e-05 -0.0006262137358286268 -0.0003993645765825191 4.090718360701378e-05 0.0002715056930897463 0.00040814375424179004 0.0005112884528277979 0.0006011859253873967 0.0006856699359097788 0.0007679540489184178 0.0008493656100595113 0.0009304443830801335 
5.3746330290633314e-05 -0.0015495220409567833 0.0006676111053011277 -0.0005144928758173867 -0.000343543470970728 0.00010217146659246622 0.0004471710841751203 0.0006856699359097788 0.000858890773288164 0.0009977500538586464 0.0011197961643035358 0.0012339640154413103 
6.37098080546541e-05 -0.0021409547618866783 0.0013242613538999764 -0.0008036864016158733 -0.0006775033842921032 -5.1697069444408337e-05 0.00043807579604911097 0.0007679540489184178 0.0009977500538586464 0.001174339924617589 0.0013247270934790422 0.001462773496362125 
7.206311734515625e-05 -0.002556523863047042 0.0017434619783592532 -0.0009812109805246239 -0.0008785343812733926 -0.00013165005499982566 0.000456176505968867 0.0008493656100595113 0.0011197961643035358 0.0013247270934790422 0.0014973231889402637 0.0016546614384635079 
7.965756979677793e-05 -0.0028859144396165028 0.002039891535541161 -0.0011123337573392751 -0.0010187558532376044 -0.00017711244204332815 0.00048712831904892647 0.0009304443830801335 0.0012339640154413103 0.001462773496362125 0.0016546614384635079 0.0018291122657652804 
