1.0752910656522085e-05 -0.0003837626755017495 0.00034088685938089765 2.2424521899067353e-05 -2.2665447401437394e-05 3.8171934267037334e-05 9.687139643063645e-05 0.0001404420561512067 0.00017327376295569696 0.00020019938437768728 0.00022419949258872788 0.00024683089215437264 
-0.0003837626755017495 0.23551225663262507 0.04345593693665703 -0.01761925667926424 -0.002881263673555572 -0.0006895688816020242 -0.0024245656349826863 -0.004373283486877715 -0.0058977017390615 -0.007073499368062068 -0.008047130743664964 -0.008917782161056776 
0.00034088685938089765 0.04345593693665703 0.2819717475787434 0.06393839640750376 6.268754205215942e-05 -0.006544290174412028 -0.0028129430199027466 0.0011145455203685338 0.0038128323578840127 0.005561295506356687 0.006765906068129389 0.00769368119426766 
2.2424521899067353e-05 -0.01761925667926424 0.06393839640750376 0.05137059711594108 0.02303921597905143 0.009577712597707032 0.004039634035451892 0.0018373590740381055 0.0009869143944195914 0.0006780661413356182 0.0005847277550538275 0.0005766690697026797 
-2.2665447401437394e-05 -0.002881263673555572 6.268754205215942e-05 0.02303921597905143 0.015739394095083743 0.008035324978041509 0.003647708354470601 0.0014549313063454672 0.00040939632037925424 -8.562860856906586e-05 -0.00032843684201599007 -0.00045905787340498133 
3.8171934267037334e-05 -0.0006895688816020242 -0.006544290174412028 0.009577712597707032 0.008035324978041509 0.004688073802375177 0.0026042548712415 0.0015563318552976042 0.001091854622701075 0.0009192467683829612 0.0008841473432661071 0.0009115008882420987 
9.687139643063645e-05 -0.0024245656349826863 -0.0028129430199027466 0.004039634035451892 0.003647708354470601 0.0026042548712415 0.0020214932537222273 0.0018107721296032643 0.0018092142011435954 0.001912595311081629 0.002065668883855617 0.002241452373437213 
0.0001404420561512067 -0.004373283486877715 0.0011145455203685338 0.0018373590740381055 0.0014549313063454672 0.0015563318552976042 0.0018107721296032643 0.002095807504009875 0.002382847040236265 0.0026675603353932156 0.002950430624679735 0.003232313988701902 
0.00017327376295569696 -0.0058977017390615 0.0038128323578840127 0.0009869143944195914 0.00040939632037925424 0.001091854622701075 0.0018092142011435954 0.002382847040236265 0.0028472633928965903 0.0032504448387225787 0.0036230971829591656 0.003981449911206094 
0.00020019938437768728 -0.007073499368062068 0.005561295506356687 0.0006780661413356182 -8.562860856906586e-05 0.0009192467683829612 0.001912595311081629 0.0026675603353932156 0.0032504448387225787 0.0037382437134077682 0.004178877712751523 0.004597446022857382 
0.00022419949258872788 -0.008047130743664964 0.006765906068129389 0.0005847277550538275 -0.00032843684201599007 0.0008841473432661071 0.002065668883855617 0.002950430624679735 0.0036230971829591656 0.004178877712751523 0.004676717426575481 0.005147444650080793 
0.00024683089215437264 -0.008917782161056776 0.00769368119426766 0.0005766690697026797 -0.00045905787340498133 0.0009115008882420987 0.002241452373437213 0.003232313988701902 0.003981449911206094 0.004597446022857382 0.005147444650080793 0.005666553547666404 
