1.5058260452000222e-05 -7.407091747198098e-05 5.9445968343335067e-05 -0.0001026930317879069 -3.337248789917293e-05 6.845965181917794e-05 0.00014594617084388056 0.00020184337915524417 0.0002449010221127139 0.0002812279203352307 0.00031424508657149346 0.00034569775240980553 
-7.407091747198098e-05 0.33106117332097645 -0.006484903639520968 -0.05854229564398118 -0.012936630355705765 0.0001525957629054545 0.0016144700174633231 0.0006441516027346928 -0.00040533490918858155 -0.0011471681269014853 -0.001636344224230528 -0.0019744609492877885 
5.9445968343335067e-05 -0.006484903639520968 0.3113864837486929 0.07637448703598061 -0.004498519658100762 -0.01403730121263188 -0.009663180756961667 -0.004899510141078498 -0.0018092680441647137 -6.573490648970442e-05 0.0008828489519512551 0.0014153292567932133 
-0.0001026930317879069 -0.05854229564398118 0.07637448703598061 0.07903203625525597 0.03553031284115157 0.01379893473298088 0.004644871813470381 0.0008466746585534682 -0.0007798073540833913 -0.0015398506136398166 -0.0019577559783098817 -0.002241706861302972 
-3.337248789917293e-05 -0.012936630355705765 -0.004498519658100762 0.03553031284115157 0.02447502053169107 0.012596681212648628 0.005782678964635648 0.0023434396676966208 0.0006840673943666496 -0.00011146121531165407 -0.0005059653116627559 -0.0007194651257048851 
6.845965181917794e-05 0.0001525957629054545 -0.01403730121263188 0.01379893473298088 0.012596681212648628 0.007627438286741068 0.004357761226151887 0.002662930084921963 0.0018941053037237643 0.0016021806078949268 0.001540493133319643 0.0015857616543595847 
0.00014594617084388056 0.0016144700174633231 -0.009663180756961667 0.004644871813470381 0.005782678964635648 0.004357761226151887 0.003330877916989414 0.002876364554394772 0.0027886032011747745 0.002897186895202528 0.0031027365164963457 0.0033540268554930253 
0.00020184337915524417 0.0006441516027346928 -0.004899510141078498 0.0008466746585534682 0.0023434396676966208 0.002662930084921963 0.002876364554394772 0.003151601885218896 0.003485036727066823 0.003853318358309004 0.004239679424760915 0.004634792443003031 
0.0002449010221127139 -0.00040533490918858155 -0.0018092680441647137 -0.0007798073540833913 0.0006840673943666496 0.0018941053037237643 0.0027886032011747745 0.003485036727066823 0.004075285191507343 0.004612332651273991 0.005123796982592759 0.005623309528585729 
0.0002812279203352307 -0.0011471681269014853 -6.573490648970442e-05 -0.0015398506136398166 -0.00011146121531165407 0.0016021806078949268 0.002897186895202528 0.003853318358309004 0.004612332651273991 0.005268886457716729 0.005875233406389991 0.006457878557087192 
0.00031424508657149346 -0.001636344224230528 0.0008828489519512551 -0.0019577559783098817 -0.0005059653116627559 0.001540493133319643 0.0031027365164963457 0.004239679424760915 0.005123796982592759 0.005875233406389991 0.00656132281157911 0.007216468552516772 
0.00034569775240980553 -0.0019744609492877885 0.0014153292567932133 -0.002241706861302972 -0.0007194651257048851 0.0015857616543595847 0.0033540268554930253 0.004634792443003031 0.005623309528585729 0.006457878557087192 0.007216468552516772 0.00793903294605581 
