8.887608541169638e-07 -9.158178374224031e-06 2.774078305224588e-07 -1.739991445989318e-05 -9.247094425366074e-06 4.00059584131655e-07 6.939494834707817e-06 1.1180120930315628e-05 1.4148723285292032e-05 1.6481129982005492e-05 1.8511791576866114e-05 2.0404002136281132e-05 
-9.158178374224031e-06 0.019637150797230732 0.001571670002202468 -0.0025354449445149554 -0.00055123572268547 -8.010272668199423e-06 2.186893430693296e-05 -4.519953065795268e-05 -0.00010849546408890112 -0.00015459550228804768 -0.00018801251122662057 -0.00021418982585888537 
2.774078305224588e-07 0.001571670002202468 0.01772442220618271 0.003897913066505539 -0.00033089285869710626 -0.0007541828782387369 -0.0005095178187953399 -0.00027294483953693293 -0.00013009542994980386 -5.573276319595368e-05 -1.9561909791815853e-05 -2.4619005296137565e-06 
-1.739991445989318e-05 -0.0025354449445149554 0.003897913066505539 0.0031889433948297983 0.0012621243814624542 0.00037044656268216006 -5.16122901968556e-06 -0.00017361755870011036 -0.00026092283256507544 -0.0003164184646860869 -0.00035939401387016253 -0.0003974195475673619 
-9.247094425366074e-06 -0.00055123572268547 -0.00033089285869710626 0.0012621243814624542 0.0008734958067790814 0.00040603892281142385 0.00012481307070026735 -2.6071484000718876e-05 -0.00010714390977305351 -0.00015416267865077547 -0.00018537129757944962 -0.00020946314885201335 
4.00059584131655e-07 -8.010272668199423e-06 -0.0007541828782387369 0.00037044656268216006 0.00040603892281142385 0.0002450027158211573 0.00012841486328920342 6.46889838988186e-05 3.348080395519598e-05 1.9233073901156662e-05 1.317855917737827e-05 1.0910077394524351e-05 
6.939494834707817e-06 2.186893430693296e-05 -0.0005095178187953399 -5.16122901968556e-06 0.00012481307070026735 0.00012841486328920342 0.00012021230702032585 0.00011927761829194118 0.00012515848251556187 0.0001351061071302335 0.00014714985954883246 0.00016019839407551111 
1.1180120930315628e-05 -4.519953065795268e-05 -0.00027294483953693293 -0.00017361755870011036 -2.6071484000718876e-05 6.46889838988186e-05 0.00011927761829194118 0.00015628796359800655 0.00018521207740784123 0.00021049127134936885 0.00023414837243701316 0.00025709076082027724 
1.4148723285292032e-05 -0.00010849546408890112 -0.00013009542994980386 -0.00026092283256507544 -0.00010714390977305351 3.348080395519598e-05 0.00012515848251556187 0.00018521207740784123 0.0002285953085357403 0.00026384599018988497 0.0002952955042321424 0.0003250169600441876 
1.6481129982005492e-05 -0.00015459550228804768 -5.573276319595368e-05 -0.0003164184646860869 -0.00015416267865077547 1.9233073901156662e-05 0.0001351061071302335 0.00021049127134936885 0.00026384599018988497 0.0003062747976496466 0.0003435468306590888 0.00037846002510242855 
1.8511791576866114e-05 -0.00018801251122662057 -1.9561909791815853e-05 -0.00035939401387016253 -0.00018537129757944962 1.317855917737827e-05 0.00014714985954883246 0.00023414837243701316 0.0002952955042321424 0.0003435468306590888 0.0003856904515272191 0.00042503394956993614 
2.0404002136281132e-05 -0.00021418982585888537 -2.4619005296137565e-06 -0.0003974195475673619 -0.00020946314885201335 1.0910077394524351e-05 0.00016019839407551111 0.00025709076082027724 0.0003250169600441876 0.00037846002510242855 0.00042503394956993614 0.00046845572232312677 
