8.541061867706111e-06 -3.2852725730104324e-05 6.719042158896773e-05 -9.36252564674127e-05 -4.108430913989595e-05 2.8725304785126154e-05 7.851780945244436e-05 0.00011276326217627012 0.00013824777498704815 0.00015928980058946575 0.00017819797806917242 0.00019611501515037595 
-3.2852725730104324e-05 0.16706505614920458 0.01565398379663504 -0.020695824093112124 -0.0025366788548071245 0.0016873795252489072 0.0014115544806377644 0.0005346309543152302 -0.00012587359407808564 -0.000535569113480777 -0.00078589614229636 -0.0009511517972123283 
6.719042158896773e-05 0.01565398379663504 0.16649136065235093 0.03652819535960648 -0.002748973687321411 -0.006698875176636289 -0.004268495431379266 -0.001832881224302812 -0.00026992226626160914 0.0006270776308377837 0.0011403573492101637 0.0014561997835903036 
-9.36252564674127e-05 -0.020695824093112124 0.03652819535960648 0.02503435357881188 0.00863366336197706 0.0021736491597882505 -0.00015258294974167561 -0.0010476722456092223 -0.0014633627251987198 -0.0017212120038029028 -0.0019281222541670338 -0.0021190498874471076 
-4.108430913989595e-05 -0.0025366788548071245 -0.002748973687321411 0.00863366336197706 0.0063109771529168395 0.0031722553391671502 0.0012501236731002343 0.00022101381430586646 -0.0003176009748695423 -0.0006117194056852554 -0.000789972367554145 -0.0009150274864990932 
2.8725304785126154e-05 0.0016873795252489072 -0.006698875176636289 0.0021736491597882505 0.0031722553391671502 0.00218579271845446 0.0013712893924009255 0.0009210464353903172 0.0007167298625372219 0.0006472267067813226 0.0006452411029076869 0.0006753937914904499 
7.851780945244436e-05 0.0014115544806377644 -0.004268495431379266 -0.00015258294974167561 0.0012501236731002343 0.0013712893924009255 0.0013275852130502637 0.0013382470595668507 0.001412371658830937 0.0015270589599363717 0.0016636087489782761 0.0018110197381873776 
0.00011276326217627012 0.0005346309543152302 -0.001832881224302812 -0.0010476722456092223 0.00022101381430586646 0.0009210464353903172 0.0013382470595668507 0.001640470471214297 0.0018968999613138847 0.0021350183280439278 0.002365758673193321 0.002593502406306421 
0.00013824777498704815 -0.00012587359407808564 -0.00026992226626160914 -0.0014633627251987198 -0.0003176009748695423 0.0007167298625372219 0.001412371658830937 0.0018968999613138847 0.0022719162427102084 0.0025938607341343027 0.0028910302433088815 0.003176912608267813 
0.00015928980058946575 -0.000535569113480777 0.0006270776308377837 -0.0017212120038029028 -0.0006117194056852554 0.0006472267067813226 0.0015270589599363717 0.0021350183280439278 0.0025938607341343027 0.0029781511273443617 0.0033269419479388953 0.0036593392211725397 
0.00017819797806917242 -0.00078589614229636 0.0011403573492101637 -0.0019281222541670338 -0.000789972367554145 0.0006452411029076869 0.0016636087489782761 0.002365758673193321 0.0028910302433088815 0.0033269419479388953 0.003720025313007522 0.004093243375565279 
0.00019611501515037595 -0.0009511517972123283 0.0014561997835903036 -0.0021190498874471076 -0.0009150274864990932 0.0006753937914904499 0.0018110197381873776 0.002593502406306421 0.003176912608267813 0.0036593392211725397 0.004093243375565279 0.0045046020735825705 
